FILE(REMOVE_RECURSE
  "CMakeFiles/distance.dir/utility/distance.cpp.o"
  "CMakeFiles/distance.dir/Cluster.cpp.o"
  "CMakeFiles/distance.dir/ExhaustiveCropper.cpp.o"
  "CMakeFiles/distance.dir/FLANNDetector.cpp.o"
  "CMakeFiles/distance.dir/Feature.cpp.o"
  "CMakeFiles/distance.dir/FeatureLoader.cpp.o"
  "CMakeFiles/distance.dir/FeaturePCA.cpp.o"
  "CMakeFiles/distance.dir/FeatureWriter.cpp.o"
  "CMakeFiles/distance.dir/HoGAlignmentDetector.cpp.o"
  "CMakeFiles/distance.dir/ImageCropper.cpp.o"
  "CMakeFiles/distance.dir/KNNDetector.cpp.o"
  "CMakeFiles/distance.dir/LatentDetector.cpp.o"
  "CMakeFiles/distance.dir/PatchClassDetector.cpp.o"
  "CMakeFiles/distance.dir/PatchDetector.cpp.o"
  "CMakeFiles/distance.dir/RandomCropper.cpp.o"
  "CMakeFiles/distance.dir/SVMDetector.cpp.o"
  "CMakeFiles/distance.dir/Transform.cpp.o"
  "CMakeFiles/distance.dir/TwoStageDetector.cpp.o"
  "CMakeFiles/distance.dir/VoronoiDetector.cpp.o"
  "CMakeFiles/distance.dir/FeaturePartitioner.cpp.o"
  "CMakeFiles/distance.dir/Image.cpp.o"
  "distance.pdb"
  "distance"
)

# Per-language clean rules from dependency scanning.
FOREACH(lang CXX)
  INCLUDE(CMakeFiles/distance.dir/cmake_clean_${lang}.cmake OPTIONAL)
ENDFOREACH(lang)
