#IncludeRegexLine: ^[ 	]*#[ 	]*(include|import)[ 	]*[<"]([^">]+)([">])

#IncludeRegexScan: ^.*$

#IncludeRegexComplain: ^$

#IncludeRegexTransform: 

../include/Cluster.h
opencv2/opencv.hpp
-

../include/ExhaustiveCropper.h
ImageCropper.h
../include/ImageCropper.h

../include/FLANNDetector.h
PatchDetector.h
../include/PatchDetector.h
fstream
-
memory
-

../include/Feature.h
opencv2/opencv.hpp
-
Result.h
../include/Result.h

../include/FeatureLoader.h
opencv2/opencv.hpp
-
fstream
-
ctime
-
eigen3/Eigen/Dense
-

../include/FeaturePCA.h
eigen3/Eigen/Dense
-
eigen3/Eigen/Eigenvalues
-
opencv2/opencv.hpp
-
opencv2/core/eigen.hpp
-

../include/FeaturePartitioner.h
opencv2/opencv.hpp
-

../include/FeatureWriter.h
opencv2/opencv.hpp
-
eigen3/Eigen/Dense
-
ctime
-

../include/HoGAlignmentDetector.h
KNNDetector.h
../include/KNNDetector.h
VoronoiDetector.h
../include/VoronoiDetector.h
memory
-

../include/Image.h
iostream
-
memory
-
PatchDetector.h
../include/PatchDetector.h
ImageCropper.h
../include/ImageCropper.h
Feature.h
../include/Feature.h
Transform.h
../include/Transform.h
tbb/tbb.h
../include/tbb/tbb.h

../include/ImageCropper.h
iostream
-
opencv2/opencv.hpp
-

../include/KNNDetector.h
PatchClassDetector.h
../include/PatchClassDetector.h
FeatureLoader.h
../include/FeatureLoader.h
fstream
-
memory
-

../include/LatentDetector.h
KNNDetector.h
../include/KNNDetector.h
FeatureLoader.h
../include/FeatureLoader.h
fstream
-
memory
-

../include/PatchClassDetector.h
PatchDetector.h
../include/PatchDetector.h

../include/PatchDetector.h
iostream
-
vector
-
opencv2/opencv.hpp
-
Feature.h
../include/Feature.h

../include/RandomCropper.h
iostream
-
ImageCropper.h
../include/ImageCropper.h
Feature.h
../include/Feature.h

../include/Result.h
opencv2/opencv.hpp
-
Transform.h
../include/Transform.h

../include/SVMDetector.h
PatchDetector.h
../include/PatchDetector.h

../include/Transform.h
opencv2/opencv.hpp
-
string
-
fstream
-
cstdio
-

../include/TwoStageDetector.h
PatchDetector.h
../include/PatchDetector.h
memory
-

../include/VoronoiDetector.h
PatchClassDetector.h
../include/PatchClassDetector.h
FeatureLoader.h
../include/FeatureLoader.h
fstream
-
memory
-

/home/lichao/git/posecpp/src/Cluster.cpp
Cluster.h
/home/lichao/git/posecpp/src/Cluster.h

/home/lichao/git/posecpp/src/ExhaustiveCropper.cpp
opencv2/opencv.hpp
-
ExhaustiveCropper.h
/home/lichao/git/posecpp/src/ExhaustiveCropper.h

/home/lichao/git/posecpp/src/FLANNDetector.cpp
FLANNDetector.h
/home/lichao/git/posecpp/src/FLANNDetector.h

/home/lichao/git/posecpp/src/Feature.cpp
Feature.h
/home/lichao/git/posecpp/src/Feature.h

/home/lichao/git/posecpp/src/FeatureLoader.cpp
FeatureLoader.h
/home/lichao/git/posecpp/src/FeatureLoader.h

/home/lichao/git/posecpp/src/FeaturePCA.cpp
FeaturePCA.h
/home/lichao/git/posecpp/src/FeaturePCA.h

/home/lichao/git/posecpp/src/FeaturePartitioner.cpp
FeaturePartitioner.h
/home/lichao/git/posecpp/src/FeaturePartitioner.h

/home/lichao/git/posecpp/src/FeatureWriter.cpp
FeatureWriter.h
/home/lichao/git/posecpp/src/FeatureWriter.h
fstream
-

/home/lichao/git/posecpp/src/HoGAlignmentDetector.cpp
HoGAlignmentDetector.h
/home/lichao/git/posecpp/src/HoGAlignmentDetector.h

/home/lichao/git/posecpp/src/Image.cpp
Image.h
/home/lichao/git/posecpp/src/Image.h

/home/lichao/git/posecpp/src/ImageCropper.cpp
ImageCropper.h
/home/lichao/git/posecpp/src/ImageCropper.h

/home/lichao/git/posecpp/src/KNNDetector.cpp
KNNDetector.h
/home/lichao/git/posecpp/src/KNNDetector.h

/home/lichao/git/posecpp/src/LatentDetector.cpp
LatentDetector.h
/home/lichao/git/posecpp/src/LatentDetector.h

/home/lichao/git/posecpp/src/PatchClassDetector.cpp
PatchClassDetector.h
/home/lichao/git/posecpp/src/PatchClassDetector.h

/home/lichao/git/posecpp/src/PatchDetector.cpp
PatchDetector.h
/home/lichao/git/posecpp/src/PatchDetector.h

/home/lichao/git/posecpp/src/RandomCropper.cpp
RandomCropper.h
/home/lichao/git/posecpp/src/RandomCropper.h
fstream
-
boost/filesystem.hpp
-
boost/algorithm/string.hpp
-

/home/lichao/git/posecpp/src/SVMDetector.cpp
opencv2/opencv.hpp
-
fstream
-
sstream
-
SVMDetector.h
/home/lichao/git/posecpp/src/SVMDetector.h

/home/lichao/git/posecpp/src/Transform.cpp
Transform.h
/home/lichao/git/posecpp/src/Transform.h

/home/lichao/git/posecpp/src/TwoStageDetector.cpp
TwoStageDetector.h
/home/lichao/git/posecpp/src/TwoStageDetector.h

/home/lichao/git/posecpp/src/VoronoiDetector.cpp
VoronoiDetector.h
/home/lichao/git/posecpp/src/VoronoiDetector.h

/home/lichao/git/posecpp/src/utility/distance.cpp
iostream
-
opencv2/opencv.hpp
-
eigen3/Eigen/Dense
-
boost/program_options.hpp
-
boost/filesystem.hpp
-
Feature.h
/home/lichao/git/posecpp/src/utility/Feature.h
FeatureLoader.h
/home/lichao/git/posecpp/src/utility/FeatureLoader.h
FeatureWriter.h
/home/lichao/git/posecpp/src/utility/FeatureWriter.h

/usr/local/include/opencv2/calib3d/calib3d.hpp
opencv2/core/core.hpp
/usr/local/include/opencv2/calib3d/opencv2/core/core.hpp
opencv2/features2d/features2d.hpp
/usr/local/include/opencv2/calib3d/opencv2/features2d/features2d.hpp

/usr/local/include/opencv2/contrib/contrib.hpp
opencv2/core/core.hpp
/usr/local/include/opencv2/contrib/opencv2/core/core.hpp
opencv2/imgproc/imgproc.hpp
/usr/local/include/opencv2/contrib/opencv2/imgproc/imgproc.hpp
opencv2/features2d/features2d.hpp
/usr/local/include/opencv2/contrib/opencv2/features2d/features2d.hpp
opencv2/objdetect/objdetect.hpp
/usr/local/include/opencv2/contrib/opencv2/objdetect/objdetect.hpp
opencv2/contrib/retina.hpp
/usr/local/include/opencv2/contrib/opencv2/contrib/retina.hpp
opencv2/contrib/openfabmap.hpp
/usr/local/include/opencv2/contrib/opencv2/contrib/openfabmap.hpp

/usr/local/include/opencv2/contrib/openfabmap.hpp
opencv2/core/core.hpp
/usr/local/include/opencv2/contrib/opencv2/core/core.hpp
opencv2/features2d/features2d.hpp
/usr/local/include/opencv2/contrib/opencv2/features2d/features2d.hpp
vector
-
list
-
map
-
set
-
valarray
-

/usr/local/include/opencv2/contrib/retina.hpp
opencv2/core/core.hpp
/usr/local/include/opencv2/contrib/opencv2/core/core.hpp
valarray
-

/usr/local/include/opencv2/core/core.hpp
opencv2/core/types_c.h
/usr/local/include/opencv2/core/opencv2/core/types_c.h
opencv2/core/version.hpp
/usr/local/include/opencv2/core/opencv2/core/version.hpp
limits.h
-
algorithm
-
cmath
-
cstddef
-
complex
-
map
-
new
-
string
-
vector
-
sstream
-
opencv2/core/operations.hpp
/usr/local/include/opencv2/core/opencv2/core/operations.hpp
opencv2/core/mat.hpp
/usr/local/include/opencv2/core/opencv2/core/mat.hpp

/usr/local/include/opencv2/core/core_c.h
opencv2/core/types_c.h
/usr/local/include/opencv2/core/opencv2/core/types_c.h

/usr/local/include/opencv2/core/eigen.hpp
opencv2/core/core_c.h
/usr/local/include/opencv2/core/opencv2/core/core_c.h
opencv2/core/core.hpp
/usr/local/include/opencv2/core/opencv2/core/core.hpp

/usr/local/include/opencv2/core/mat.hpp
limits.h
-
string.h
-

/usr/local/include/opencv2/core/operations.hpp
string.h
-
limits.h
-
ext/atomicity.h
-
bits/atomicity.h
-
limits
-

/usr/local/include/opencv2/core/types_c.h
assert.h
-
stdlib.h
-
string.h
-
float.h
-
stdint.h
-
intrin.h
-
emmintrin.h
-
fastmath.h
-
math.h
-
ipl.h
-
ipl/ipl.h
-
tegra_round.hpp
/usr/local/include/opencv2/core/tegra_round.hpp
emmintrin.h
/usr/local/include/opencv2/core/emmintrin.h

/usr/local/include/opencv2/core/version.hpp

/usr/local/include/opencv2/features2d/features2d.hpp
opencv2/core/core.hpp
/usr/local/include/opencv2/features2d/opencv2/core/core.hpp
opencv2/flann/miniflann.hpp
/usr/local/include/opencv2/features2d/opencv2/flann/miniflann.hpp
limits
-

/usr/local/include/opencv2/flann/config.h

/usr/local/include/opencv2/flann/defines.h
config.h
/usr/local/include/opencv2/flann/config.h

/usr/local/include/opencv2/flann/miniflann.hpp
opencv2/core/core.hpp
/usr/local/include/opencv2/flann/opencv2/core/core.hpp
opencv2/flann/defines.h
/usr/local/include/opencv2/flann/opencv2/flann/defines.h

/usr/local/include/opencv2/highgui/highgui.hpp
opencv2/core/core.hpp
/usr/local/include/opencv2/highgui/opencv2/core/core.hpp
opencv2/highgui/highgui_c.h
/usr/local/include/opencv2/highgui/opencv2/highgui/highgui_c.h

/usr/local/include/opencv2/highgui/highgui_c.h
opencv2/core/core_c.h
/usr/local/include/opencv2/highgui/opencv2/core/core_c.h

/usr/local/include/opencv2/imgproc/imgproc.hpp
opencv2/core/core.hpp
/usr/local/include/opencv2/imgproc/opencv2/core/core.hpp
opencv2/imgproc/types_c.h
/usr/local/include/opencv2/imgproc/opencv2/imgproc/types_c.h

/usr/local/include/opencv2/imgproc/imgproc_c.h
opencv2/core/core_c.h
/usr/local/include/opencv2/imgproc/opencv2/core/core_c.h
opencv2/imgproc/types_c.h
/usr/local/include/opencv2/imgproc/opencv2/imgproc/types_c.h

/usr/local/include/opencv2/imgproc/types_c.h
opencv2/core/core_c.h
/usr/local/include/opencv2/imgproc/opencv2/core/core_c.h

/usr/local/include/opencv2/ml/ml.hpp
opencv2/core/core.hpp
/usr/local/include/opencv2/ml/opencv2/core/core.hpp
limits.h
-
map
-
string
-
iostream
-

/usr/local/include/opencv2/objdetect/objdetect.hpp
opencv2/core/core.hpp
/usr/local/include/opencv2/objdetect/opencv2/core/core.hpp
map
-
deque
-

/usr/local/include/opencv2/opencv.hpp
opencv2/core/core_c.h
/usr/local/include/opencv2/opencv2/core/core_c.h
opencv2/core/core.hpp
/usr/local/include/opencv2/opencv2/core/core.hpp
opencv2/flann/miniflann.hpp
/usr/local/include/opencv2/opencv2/flann/miniflann.hpp
opencv2/imgproc/imgproc_c.h
/usr/local/include/opencv2/opencv2/imgproc/imgproc_c.h
opencv2/imgproc/imgproc.hpp
/usr/local/include/opencv2/opencv2/imgproc/imgproc.hpp
opencv2/photo/photo.hpp
/usr/local/include/opencv2/opencv2/photo/photo.hpp
opencv2/video/video.hpp
/usr/local/include/opencv2/opencv2/video/video.hpp
opencv2/features2d/features2d.hpp
/usr/local/include/opencv2/opencv2/features2d/features2d.hpp
opencv2/objdetect/objdetect.hpp
/usr/local/include/opencv2/opencv2/objdetect/objdetect.hpp
opencv2/calib3d/calib3d.hpp
/usr/local/include/opencv2/opencv2/calib3d/calib3d.hpp
opencv2/ml/ml.hpp
/usr/local/include/opencv2/opencv2/ml/ml.hpp
opencv2/highgui/highgui_c.h
/usr/local/include/opencv2/opencv2/highgui/highgui_c.h
opencv2/highgui/highgui.hpp
/usr/local/include/opencv2/opencv2/highgui/highgui.hpp
opencv2/contrib/contrib.hpp
/usr/local/include/opencv2/opencv2/contrib/contrib.hpp

/usr/local/include/opencv2/photo/photo.hpp
opencv2/core/core.hpp
/usr/local/include/opencv2/photo/opencv2/core/core.hpp
opencv2/imgproc/imgproc.hpp
/usr/local/include/opencv2/photo/opencv2/imgproc/imgproc.hpp
opencv2/photo/photo_c.h
/usr/local/include/opencv2/photo/opencv2/photo/photo_c.h

/usr/local/include/opencv2/photo/photo_c.h
opencv2/core/core_c.h
/usr/local/include/opencv2/photo/opencv2/core/core_c.h

/usr/local/include/opencv2/video/background_segm.hpp
opencv2/core/core.hpp
/usr/local/include/opencv2/video/opencv2/core/core.hpp
list
-

/usr/local/include/opencv2/video/tracking.hpp
opencv2/core/core.hpp
/usr/local/include/opencv2/video/opencv2/core/core.hpp
opencv2/imgproc/imgproc.hpp
/usr/local/include/opencv2/video/opencv2/imgproc/imgproc.hpp

/usr/local/include/opencv2/video/video.hpp
opencv2/video/tracking.hpp
/usr/local/include/opencv2/video/opencv2/video/tracking.hpp
opencv2/video/background_segm.hpp
/usr/local/include/opencv2/video/opencv2/video/background_segm.hpp

