# The set of languages for which implicit dependencies are needed:
SET(CMAKE_DEPENDS_LANGUAGES
  "CXX"
  )
# The set of files for implicit dependencies of each language:
SET(CMAKE_DEPENDS_CHECK_CXX
  "/home/lichao/git/posecpp/src/Cluster.cpp" "/home/lichao/git/posecpp/debug/src/CMakeFiles/distance.dir/Cluster.cpp.o"
  "/home/lichao/git/posecpp/src/ExhaustiveCropper.cpp" "/home/lichao/git/posecpp/debug/src/CMakeFiles/distance.dir/ExhaustiveCropper.cpp.o"
  "/home/lichao/git/posecpp/src/FLANNDetector.cpp" "/home/lichao/git/posecpp/debug/src/CMakeFiles/distance.dir/FLANNDetector.cpp.o"
  "/home/lichao/git/posecpp/src/Feature.cpp" "/home/lichao/git/posecpp/debug/src/CMakeFiles/distance.dir/Feature.cpp.o"
  "/home/lichao/git/posecpp/src/FeatureLoader.cpp" "/home/lichao/git/posecpp/debug/src/CMakeFiles/distance.dir/FeatureLoader.cpp.o"
  "/home/lichao/git/posecpp/src/FeaturePCA.cpp" "/home/lichao/git/posecpp/debug/src/CMakeFiles/distance.dir/FeaturePCA.cpp.o"
  "/home/lichao/git/posecpp/src/FeaturePartitioner.cpp" "/home/lichao/git/posecpp/debug/src/CMakeFiles/distance.dir/FeaturePartitioner.cpp.o"
  "/home/lichao/git/posecpp/src/FeatureWriter.cpp" "/home/lichao/git/posecpp/debug/src/CMakeFiles/distance.dir/FeatureWriter.cpp.o"
  "/home/lichao/git/posecpp/src/HoGAlignmentDetector.cpp" "/home/lichao/git/posecpp/debug/src/CMakeFiles/distance.dir/HoGAlignmentDetector.cpp.o"
  "/home/lichao/git/posecpp/src/Image.cpp" "/home/lichao/git/posecpp/debug/src/CMakeFiles/distance.dir/Image.cpp.o"
  "/home/lichao/git/posecpp/src/ImageCropper.cpp" "/home/lichao/git/posecpp/debug/src/CMakeFiles/distance.dir/ImageCropper.cpp.o"
  "/home/lichao/git/posecpp/src/KNNDetector.cpp" "/home/lichao/git/posecpp/debug/src/CMakeFiles/distance.dir/KNNDetector.cpp.o"
  "/home/lichao/git/posecpp/src/LatentDetector.cpp" "/home/lichao/git/posecpp/debug/src/CMakeFiles/distance.dir/LatentDetector.cpp.o"
  "/home/lichao/git/posecpp/src/PatchClassDetector.cpp" "/home/lichao/git/posecpp/debug/src/CMakeFiles/distance.dir/PatchClassDetector.cpp.o"
  "/home/lichao/git/posecpp/src/PatchDetector.cpp" "/home/lichao/git/posecpp/debug/src/CMakeFiles/distance.dir/PatchDetector.cpp.o"
  "/home/lichao/git/posecpp/src/RandomCropper.cpp" "/home/lichao/git/posecpp/debug/src/CMakeFiles/distance.dir/RandomCropper.cpp.o"
  "/home/lichao/git/posecpp/src/SVMDetector.cpp" "/home/lichao/git/posecpp/debug/src/CMakeFiles/distance.dir/SVMDetector.cpp.o"
  "/home/lichao/git/posecpp/src/Transform.cpp" "/home/lichao/git/posecpp/debug/src/CMakeFiles/distance.dir/Transform.cpp.o"
  "/home/lichao/git/posecpp/src/TwoStageDetector.cpp" "/home/lichao/git/posecpp/debug/src/CMakeFiles/distance.dir/TwoStageDetector.cpp.o"
  "/home/lichao/git/posecpp/src/VoronoiDetector.cpp" "/home/lichao/git/posecpp/debug/src/CMakeFiles/distance.dir/VoronoiDetector.cpp.o"
  "/home/lichao/git/posecpp/src/utility/distance.cpp" "/home/lichao/git/posecpp/debug/src/CMakeFiles/distance.dir/utility/distance.cpp.o"
  )
SET(CMAKE_CXX_COMPILER_ID "GNU")

# Targets to which this target links.
SET(CMAKE_TARGET_LINKED_INFO_FILES
  )

# The include file search paths:
SET(CMAKE_C_TARGET_INCLUDE_PATH
  "../include"
  "/usr/local/include/opencv"
  "/usr/local/include"
  )
SET(CMAKE_CXX_TARGET_INCLUDE_PATH ${CMAKE_C_TARGET_INCLUDE_PATH})
SET(CMAKE_Fortran_TARGET_INCLUDE_PATH ${CMAKE_C_TARGET_INCLUDE_PATH})
SET(CMAKE_ASM_TARGET_INCLUDE_PATH ${CMAKE_C_TARGET_INCLUDE_PATH})
