/usr/bin/c++   -std=c++11  -g    CMakeFiles/distance.dir/utility/distance.cpp.o CMakeFiles/distance.dir/Cluster.cpp.o CMakeFiles/distance.dir/ExhaustiveCropper.cpp.o CMakeFiles/distance.dir/FLANNDetector.cpp.o CMakeFiles/distance.dir/Feature.cpp.o CMakeFiles/distance.dir/FeatureLoader.cpp.o CMakeFiles/distance.dir/FeaturePCA.cpp.o CMakeFiles/distance.dir/FeatureWriter.cpp.o CMakeFiles/distance.dir/HoGAlignmentDetector.cpp.o CMakeFiles/distance.dir/ImageCropper.cpp.o CMakeFiles/distance.dir/KNNDetector.cpp.o CMakeFiles/distance.dir/LatentDetector.cpp.o CMakeFiles/distance.dir/PatchClassDetector.cpp.o CMakeFiles/distance.dir/PatchDetector.cpp.o CMakeFiles/distance.dir/RandomCropper.cpp.o CMakeFiles/distance.dir/SVMDetector.cpp.o CMakeFiles/distance.dir/Transform.cpp.o CMakeFiles/distance.dir/TwoStageDetector.cpp.o CMakeFiles/distance.dir/VoronoiDetector.cpp.o CMakeFiles/distance.dir/FeaturePartitioner.cpp.o CMakeFiles/distance.dir/Image.cpp.o  -o distance -rdynamic /usr/local/lib/libopencv_videostab.so.2.4.9 /usr/local/lib/libopencv_video.so.2.4.9 /usr/local/lib/libopencv_ts.a /usr/local/lib/libopencv_superres.so.2.4.9 /usr/local/lib/libopencv_stitching.so.2.4.9 /usr/local/lib/libopencv_photo.so.2.4.9 /usr/local/lib/libopencv_ocl.so.2.4.9 /usr/local/lib/libopencv_objdetect.so.2.4.9 /usr/local/lib/libopencv_nonfree.so.2.4.9 /usr/local/lib/libopencv_ml.so.2.4.9 /usr/local/lib/libopencv_legacy.so.2.4.9 /usr/local/lib/libopencv_imgproc.so.2.4.9 /usr/local/lib/libopencv_highgui.so.2.4.9 /usr/local/lib/libopencv_gpu.so.2.4.9 /usr/local/lib/libopencv_flann.so.2.4.9 /usr/local/lib/libopencv_features2d.so.2.4.9 /usr/local/lib/libopencv_core.so.2.4.9 /usr/local/lib/libopencv_contrib.so.2.4.9 /usr/local/lib/libopencv_calib3d.so.2.4.9 -ltbb -ltbbmalloc -lboost_program_options -lboost_filesystem -lboost_system -ldl -lm -lpthread -lrt -ltbb /usr/local/lib/libopencv_nonfree.so.2.4.9 /usr/local/lib/libopencv_ocl.so.2.4.9 /usr/local/lib/libopencv_gpu.so.2.4.9 /usr/local/lib/libopencv_photo.so.2.4.9 /usr/local/lib/libopencv_objdetect.so.2.4.9 /usr/local/lib/libopencv_legacy.so.2.4.9 /usr/local/lib/libopencv_video.so.2.4.9 /usr/local/lib/libopencv_ml.so.2.4.9 /usr/local/lib/libopencv_calib3d.so.2.4.9 /usr/local/lib/libopencv_features2d.so.2.4.9 /usr/local/lib/libopencv_highgui.so.2.4.9 /usr/local/lib/libopencv_imgproc.so.2.4.9 /usr/local/lib/libopencv_flann.so.2.4.9 /usr/local/lib/libopencv_core.so.2.4.9 -Wl,-rpath,/usr/local/lib 
