<?xml version="1.0" encoding="utf-8"?>
<Project DefaultTargets="Build" ToolsVersion="12.0" xmlns="http://schemas.microsoft.com/developer/msbuild/2003">
  <ItemGroup Label="ProjectConfigurations">
    <ProjectConfiguration Include="Debug|x64">
      <Configuration>Debug</Configuration>
      <Platform>x64</Platform>
    </ProjectConfiguration>
    <ProjectConfiguration Include="Release|x64">
      <Configuration>Release</Configuration>
      <Platform>x64</Platform>
    </ProjectConfiguration>
  </ItemGroup>
  <PropertyGroup Label="Globals">
    <ProjectGuid>{5E23648E-1B6C-4961-84DC-F5AD07BF0C38}</ProjectGuid>
    <Keyword>Win32Proj</Keyword>
  </PropertyGroup>
  <Import Project="$(VCTargetsPath)\Microsoft.Cpp.Default.props" />
  <PropertyGroup Condition="'$(Configuration)|$(Platform)'=='Debug|x64'" Label="Configuration">
    <ConfigurationType>Application</ConfigurationType>
    <UseDebugLibraries>true</UseDebugLibraries>
    <PlatformToolset>Intel C++ Compiler XE 14.0</PlatformToolset>
    <UseIntelTBB>true</UseIntelTBB>
  </PropertyGroup>
  <PropertyGroup Condition="'$(Configuration)|$(Platform)'=='Release|x64'" Label="Configuration">
    <ConfigurationType>Application</ConfigurationType>
    <UseDebugLibraries>false</UseDebugLibraries>
    <PlatformToolset>Intel C++ Compiler XE 14.0</PlatformToolset>
    <UseIntelTBB>true</UseIntelTBB>
  </PropertyGroup>
  <Import Project="$(VCTargetsPath)\Microsoft.Cpp.props" />
  <ImportGroup Label="ExtensionSettings">
  </ImportGroup>
  <ImportGroup Condition="'$(Configuration)|$(Platform)'=='Debug|x64'" Label="PropertySheets">
    <Import Project="$(UserRootDir)\Microsoft.Cpp.$(Platform).user.props" Condition="exists('$(UserRootDir)\Microsoft.Cpp.$(Platform).user.props')" Label="LocalAppDataPlatform" />
    <Import Project="..\props\eigen.props" />
    <Import Project="..\props\boost.props" />
    <Import Project="..\props\opencv_dbg.props" />
  </ImportGroup>
  <ImportGroup Condition="'$(Configuration)|$(Platform)'=='Release|x64'" Label="PropertySheets">
    <Import Project="$(UserRootDir)\Microsoft.Cpp.$(Platform).user.props" Condition="exists('$(UserRootDir)\Microsoft.Cpp.$(Platform).user.props')" Label="LocalAppDataPlatform" />
    <Import Project="..\props\opencv.props" />
    <Import Project="..\props\eigen.props" />
    <Import Project="..\props\boost.props" />
  </ImportGroup>
  <PropertyGroup Label="UserMacros" />
  <PropertyGroup Condition="'$(Configuration)|$(Platform)'=='Debug|x64'">
    <LinkIncremental>true</LinkIncremental>
    <IncludePath>$(IncludePath)</IncludePath>
  </PropertyGroup>
  <PropertyGroup Condition="'$(Configuration)|$(Platform)'=='Release|x64'">
    <LinkIncremental>true</LinkIncremental>
  </PropertyGroup>
  <ItemDefinitionGroup Condition="'$(Configuration)|$(Platform)'=='Debug|x64'">
    <ClCompile>
      <PreprocessorDefinitions>WIN32;_DEBUG;_CONSOLE;%(PreprocessorDefinitions)</PreprocessorDefinitions>
      <RuntimeLibrary>MultiThreadedDebugDLL</RuntimeLibrary>
      <WarningLevel>Level3</WarningLevel>
      <DebugInformationFormat>ProgramDatabase</DebugInformationFormat>
      <Optimization>Disabled</Optimization>
      <AdditionalIncludeDirectories>include;%(AdditionalIncludeDirectories)</AdditionalIncludeDirectories>
    </ClCompile>
    <Link>
      <GenerateDebugInformation>true</GenerateDebugInformation>
      <SubSystem>Console</SubSystem>
    </Link>
  </ItemDefinitionGroup>
  <ItemDefinitionGroup Condition="'$(Configuration)|$(Platform)'=='Release|x64'">
    <ClCompile>
      <PreprocessorDefinitions>WIN32;NDEBUG;_CONSOLE;%(PreprocessorDefinitions)</PreprocessorDefinitions>
      <RuntimeLibrary>MultiThreadedDLL</RuntimeLibrary>
      <WarningLevel>Level3</WarningLevel>
      <DebugInformationFormat>ProgramDatabase</DebugInformationFormat>
      <AdditionalIncludeDirectories>include;%(AdditionalIncludeDirectories)</AdditionalIncludeDirectories>
    </ClCompile>
    <Link>
      <GenerateDebugInformation>true</GenerateDebugInformation>
      <SubSystem>Console</SubSystem>
      <EnableCOMDATFolding>true</EnableCOMDATFolding>
      <OptimizeReferences>true</OptimizeReferences>
    </Link>
  </ItemDefinitionGroup>
  <ItemGroup>
    <ClCompile Include="src\Cluster.cpp" />
    <ClCompile Include="src\ExhaustiveCropper.cpp" />
    <ClCompile Include="src\Feature.cpp" />
    <ClCompile Include="src\FeatureLoader.cpp" />
    <ClCompile Include="src\FeaturePartitioner.cpp" />
    <ClCompile Include="src\FeaturePCA.cpp" />
    <ClCompile Include="src\FeatureWriter.cpp" />
    <ClCompile Include="src\FLANNDetector.cpp" />
    <ClCompile Include="src\HoGAlignmentDetector.cpp" />
    <ClCompile Include="src\Image.cpp" />
    <ClCompile Include="src\ImageCropper.cpp" />
    <ClCompile Include="src\KNNDetector.cpp" />
    <ClCompile Include="src\LatentDetector.cpp" />
    <ClCompile Include="src\PatchClassDetector.cpp" />
    <ClCompile Include="src\PatchDetector.cpp" />
    <ClCompile Include="src\RandomCropper.cpp" />
    <ClCompile Include="src\SVMDetector.cpp" />
    <ClCompile Include="src\Transform.cpp" />
    <ClCompile Include="src\TwoStageDetector.cpp" />
    <ClCompile Include="src\utility\main.cpp" />
    <ClCompile Include="src\VoronoiDetector.cpp" />
  </ItemGroup>
  <ItemGroup>
    <ClInclude Include="include\Cluster.h" />
    <ClInclude Include="include\ExhaustiveCropper.h" />
    <ClInclude Include="include\Feature.h" />
    <ClInclude Include="include\FeatureLoader.h" />
    <ClInclude Include="include\FeaturePartitioner.h" />
    <ClInclude Include="include\FeaturePCA.h" />
    <ClInclude Include="include\FeatureWriter.h" />
    <ClInclude Include="include\FLANNDetector.h" />
    <ClInclude Include="include\HoGAlignmentDetector.h" />
    <ClInclude Include="include\Image.h" />
    <ClInclude Include="include\ImageCropper.h" />
    <ClInclude Include="include\KNNDetector.h" />
    <ClInclude Include="include\LatentDetector.h" />
    <ClInclude Include="include\PatchClassDetector.h" />
    <ClInclude Include="include\PatchDetector.h" />
    <ClInclude Include="include\RandomCropper.h" />
    <ClInclude Include="include\Result.h" />
    <ClInclude Include="include\SVMDetector.h" />
    <ClInclude Include="include\Transform.h" />
    <ClInclude Include="include\TwoStageDetector.h" />
    <ClInclude Include="include\VoronoiDetector.h" />
  </ItemGroup>
  <Import Project="$(VCTargetsPath)\Microsoft.Cpp.targets" />
  <ImportGroup Label="ExtensionTargets">
  </ImportGroup>
</Project>