FILE(REMOVE_RECURSE
  "CMakeFiles/unsu.dir/utility/main.cpp.o"
  "CMakeFiles/unsu.dir/Cluster.cpp.o"
  "CMakeFiles/unsu.dir/ExhaustiveCropper.cpp.o"
  "CMakeFiles/unsu.dir/FLANNDetector.cpp.o"
  "CMakeFiles/unsu.dir/Feature.cpp.o"
  "CMakeFiles/unsu.dir/FeatureLoader.cpp.o"
  "CMakeFiles/unsu.dir/FeaturePCA.cpp.o"
  "CMakeFiles/unsu.dir/FeatureWriter.cpp.o"
  "CMakeFiles/unsu.dir/HoGAlignmentDetector.cpp.o"
  "CMakeFiles/unsu.dir/ImageCropper.cpp.o"
  "CMakeFiles/unsu.dir/KNNDetector.cpp.o"
  "CMakeFiles/unsu.dir/LatentDetector.cpp.o"
  "CMakeFiles/unsu.dir/PatchClassDetector.cpp.o"
  "CMakeFiles/unsu.dir/PatchDetector.cpp.o"
  "CMakeFiles/unsu.dir/RandomCropper.cpp.o"
  "CMakeFiles/unsu.dir/SVMDetector.cpp.o"
  "CMakeFiles/unsu.dir/Transform.cpp.o"
  "CMakeFiles/unsu.dir/TwoStageDetector.cpp.o"
  "CMakeFiles/unsu.dir/VoronoiDetector.cpp.o"
  "CMakeFiles/unsu.dir/FeaturePartitioner.cpp.o"
  "CMakeFiles/unsu.dir/Image.cpp.o"
  "unsu.pdb"
  "unsu"
)

# Per-language clean rules from dependency scanning.
FOREACH(lang CXX)
  INCLUDE(CMakeFiles/unsu.dir/cmake_clean_${lang}.cmake OPTIONAL)
ENDFOREACH(lang)
