/usr/bin/c++   -std=c++11  -g    CMakeFiles/unsu.dir/utility/main.cpp.o CMakeFiles/unsu.dir/Cluster.cpp.o CMakeFiles/unsu.dir/ExhaustiveCropper.cpp.o CMakeFiles/unsu.dir/FLANNDetector.cpp.o CMakeFiles/unsu.dir/Feature.cpp.o CMakeFiles/unsu.dir/FeatureLoader.cpp.o CMakeFiles/unsu.dir/FeaturePCA.cpp.o CMakeFiles/unsu.dir/FeatureWriter.cpp.o CMakeFiles/unsu.dir/HoGAlignmentDetector.cpp.o CMakeFiles/unsu.dir/ImageCropper.cpp.o CMakeFiles/unsu.dir/KNNDetector.cpp.o CMakeFiles/unsu.dir/LatentDetector.cpp.o CMakeFiles/unsu.dir/PatchClassDetector.cpp.o CMakeFiles/unsu.dir/PatchDetector.cpp.o CMakeFiles/unsu.dir/RandomCropper.cpp.o CMakeFiles/unsu.dir/SVMDetector.cpp.o CMakeFiles/unsu.dir/Transform.cpp.o CMakeFiles/unsu.dir/TwoStageDetector.cpp.o CMakeFiles/unsu.dir/VoronoiDetector.cpp.o CMakeFiles/unsu.dir/FeaturePartitioner.cpp.o CMakeFiles/unsu.dir/Image.cpp.o  -o unsu -rdynamic /usr/local/lib/libopencv_videostab.so.2.4.9 /usr/local/lib/libopencv_video.so.2.4.9 /usr/local/lib/libopencv_ts.a /usr/local/lib/libopencv_superres.so.2.4.9 /usr/local/lib/libopencv_stitching.so.2.4.9 /usr/local/lib/libopencv_photo.so.2.4.9 /usr/local/lib/libopencv_ocl.so.2.4.9 /usr/local/lib/libopencv_objdetect.so.2.4.9 /usr/local/lib/libopencv_nonfree.so.2.4.9 /usr/local/lib/libopencv_ml.so.2.4.9 /usr/local/lib/libopencv_legacy.so.2.4.9 /usr/local/lib/libopencv_imgproc.so.2.4.9 /usr/local/lib/libopencv_highgui.so.2.4.9 /usr/local/lib/libopencv_gpu.so.2.4.9 /usr/local/lib/libopencv_flann.so.2.4.9 /usr/local/lib/libopencv_features2d.so.2.4.9 /usr/local/lib/libopencv_core.so.2.4.9 /usr/local/lib/libopencv_contrib.so.2.4.9 /usr/local/lib/libopencv_calib3d.so.2.4.9 -ltbb -ltbbmalloc -lboost_program_options -lboost_filesystem -lboost_system -ldl -lm -lpthread -lrt -ltbb /usr/local/lib/libopencv_nonfree.so.2.4.9 /usr/local/lib/libopencv_ocl.so.2.4.9 /usr/local/lib/libopencv_gpu.so.2.4.9 /usr/local/lib/libopencv_photo.so.2.4.9 /usr/local/lib/libopencv_objdetect.so.2.4.9 /usr/local/lib/libopencv_legacy.so.2.4.9 /usr/local/lib/libopencv_video.so.2.4.9 /usr/local/lib/libopencv_ml.so.2.4.9 /usr/local/lib/libopencv_calib3d.so.2.4.9 /usr/local/lib/libopencv_features2d.so.2.4.9 /usr/local/lib/libopencv_highgui.so.2.4.9 /usr/local/lib/libopencv_imgproc.so.2.4.9 /usr/local/lib/libopencv_flann.so.2.4.9 /usr/local/lib/libopencv_core.so.2.4.9 -Wl,-rpath,/usr/local/lib 
