# The set of languages for which implicit dependencies are needed:
set(CMAKE_DEPENDS_LANGUAGES
  "CXX"
  )
# The set of files for implicit dependencies of each language:
set(CMAKE_DEPENDS_CHECK_CXX
  "/home/yipeng/Desktop/unsu_continue/src/Cluster.cpp" "/home/yipeng/Desktop/unsu_continue/cmake-build-debug/src/CMakeFiles/unsu.dir/Cluster.cpp.o"
  "/home/yipeng/Desktop/unsu_continue/src/ExhaustiveCropper.cpp" "/home/yipeng/Desktop/unsu_continue/cmake-build-debug/src/CMakeFiles/unsu.dir/ExhaustiveCropper.cpp.o"
  "/home/yipeng/Desktop/unsu_continue/src/FLANNDetector.cpp" "/home/yipeng/Desktop/unsu_continue/cmake-build-debug/src/CMakeFiles/unsu.dir/FLANNDetector.cpp.o"
  "/home/yipeng/Desktop/unsu_continue/src/Feature.cpp" "/home/yipeng/Desktop/unsu_continue/cmake-build-debug/src/CMakeFiles/unsu.dir/Feature.cpp.o"
  "/home/yipeng/Desktop/unsu_continue/src/FeatureLoader.cpp" "/home/yipeng/Desktop/unsu_continue/cmake-build-debug/src/CMakeFiles/unsu.dir/FeatureLoader.cpp.o"
  "/home/yipeng/Desktop/unsu_continue/src/FeaturePCA.cpp" "/home/yipeng/Desktop/unsu_continue/cmake-build-debug/src/CMakeFiles/unsu.dir/FeaturePCA.cpp.o"
  "/home/yipeng/Desktop/unsu_continue/src/FeaturePartitioner.cpp" "/home/yipeng/Desktop/unsu_continue/cmake-build-debug/src/CMakeFiles/unsu.dir/FeaturePartitioner.cpp.o"
  "/home/yipeng/Desktop/unsu_continue/src/FeatureWriter.cpp" "/home/yipeng/Desktop/unsu_continue/cmake-build-debug/src/CMakeFiles/unsu.dir/FeatureWriter.cpp.o"
  "/home/yipeng/Desktop/unsu_continue/src/HoGAlignmentDetector.cpp" "/home/yipeng/Desktop/unsu_continue/cmake-build-debug/src/CMakeFiles/unsu.dir/HoGAlignmentDetector.cpp.o"
  "/home/yipeng/Desktop/unsu_continue/src/Image.cpp" "/home/yipeng/Desktop/unsu_continue/cmake-build-debug/src/CMakeFiles/unsu.dir/Image.cpp.o"
  "/home/yipeng/Desktop/unsu_continue/src/ImageCropper.cpp" "/home/yipeng/Desktop/unsu_continue/cmake-build-debug/src/CMakeFiles/unsu.dir/ImageCropper.cpp.o"
  "/home/yipeng/Desktop/unsu_continue/src/KNNDetector.cpp" "/home/yipeng/Desktop/unsu_continue/cmake-build-debug/src/CMakeFiles/unsu.dir/KNNDetector.cpp.o"
  "/home/yipeng/Desktop/unsu_continue/src/LatentDetector.cpp" "/home/yipeng/Desktop/unsu_continue/cmake-build-debug/src/CMakeFiles/unsu.dir/LatentDetector.cpp.o"
  "/home/yipeng/Desktop/unsu_continue/src/PatchClassDetector.cpp" "/home/yipeng/Desktop/unsu_continue/cmake-build-debug/src/CMakeFiles/unsu.dir/PatchClassDetector.cpp.o"
  "/home/yipeng/Desktop/unsu_continue/src/PatchDetector.cpp" "/home/yipeng/Desktop/unsu_continue/cmake-build-debug/src/CMakeFiles/unsu.dir/PatchDetector.cpp.o"
  "/home/yipeng/Desktop/unsu_continue/src/RandomCropper.cpp" "/home/yipeng/Desktop/unsu_continue/cmake-build-debug/src/CMakeFiles/unsu.dir/RandomCropper.cpp.o"
  "/home/yipeng/Desktop/unsu_continue/src/SVMDetector.cpp" "/home/yipeng/Desktop/unsu_continue/cmake-build-debug/src/CMakeFiles/unsu.dir/SVMDetector.cpp.o"
  "/home/yipeng/Desktop/unsu_continue/src/Transform.cpp" "/home/yipeng/Desktop/unsu_continue/cmake-build-debug/src/CMakeFiles/unsu.dir/Transform.cpp.o"
  "/home/yipeng/Desktop/unsu_continue/src/TwoStageDetector.cpp" "/home/yipeng/Desktop/unsu_continue/cmake-build-debug/src/CMakeFiles/unsu.dir/TwoStageDetector.cpp.o"
  "/home/yipeng/Desktop/unsu_continue/src/VoronoiDetector.cpp" "/home/yipeng/Desktop/unsu_continue/cmake-build-debug/src/CMakeFiles/unsu.dir/VoronoiDetector.cpp.o"
  "/home/yipeng/Desktop/unsu_continue/src/utility/main.cpp" "/home/yipeng/Desktop/unsu_continue/cmake-build-debug/src/CMakeFiles/unsu.dir/utility/main.cpp.o"
  )
set(CMAKE_CXX_COMPILER_ID "Clang")

# The include file search paths:
set(CMAKE_CXX_TARGET_INCLUDE_PATH
  "../include"
  "/usr/local/include"
  "/usr/local/include/opencv"
  )

# Targets to which this target links.
set(CMAKE_TARGET_LINKED_INFO_FILES
  )

# Fortran module output directory.
set(CMAKE_Fortran_TARGET_MODULE_DIR "")
